digraph Tree {
node [shape=box, style="filled, rounded", color="black", fontname="helvetica"] ;
edge [fontname="helvetica"] ;
0 [label="PbO <= 5.46\ngini = 0.406\nsamples = 60\nvalue = [17, 43]\nclass = High potassium", fillcolor="#87c4ef"] ;
1 [label="gini = 0.0\nsamples = 17\nvalue = [17, 0]\nclass = Lead and barium", fillcolor="#e58139"] ;
0 -> 1 [labeldistance=2.5, labelangle=45, headlabel="True"] ;
2 [label="gini = 0.0\nsamples = 43\nvalue = [0, 43]\nclass = High potassium", fillcolor="#399de5"] ;
0 -> 2 [labeldistance=2.5, labelangle=-45, headlabel="False"] ;
}